{"layers":[{"0":{},"1":{},"2":{},"3":{},"4":{},"5":{},"6":{},"7":{},"8":{},"9":{},"10":{},"11":{},"12":{},"13":{},"14":{}},{"0":{"bias":-0.7818427086204559,"weights":{"0":-0.4334464833303578,"1":1.6627346347176295,"2":0.2332088313348948,"3":-1.792752558919857,"4":1.4092992264511497,"5":-0.13633107194934402,"6":-0.07246497443028971,"7":-0.18567764237846804,"8":-0.01257695069496556,"9":-0.010216568219662742,"10":0.11558662892709676,"11":0.0717131962532907,"12":-0.17654637551753583,"13":0.04046486978863503,"14":-0.0809675573812986}},"1":{"bias":0.11130635696746613,"weights":{"0":-0.12472217472427664,"1":-0.5535889544056845,"2":-0.08354405434089862,"3":0.6681246788134293,"4":-0.6601450365017206,"5":0.16121049218704336,"6":-0.048800698878045695,"7":0.1659162677848075,"8":0.08068790791379155,"9":0.11294698620433785,"10":0.04150517218410482,"11":-0.047504684145640574,"12":-0.14444621051556628,"13":-0.024014338254394557,"14":0.1539248744846975}},"2":{"bias":-0.4259174609952861,"weights":{"0":-0.44761000313898514,"1":1.215793728745255,"2":0.3259713943024158,"3":-1.3640741708290844,"4":1.0429660356563168,"5":-0.04366266826688081,"6":0.07668269484503004,"7":0.0957580654118636,"8":-0.16101012452618538,"9":-0.1669940338085387,"10":0.03904684070257175,"11":-0.10567573386332559,"12":-0.18729652964592694,"13":0.08172378379639655,"14":0.019867094236779348}},"3":{"bias":0.056938163201199855,"weights":{"0":0.009929964676652874,"1":0.17446268970924678,"2":-0.13351756892023225,"3":-0.14328241355232482,"4":0.2587577134213584,"5":-0.05832115935564444,"6":0.08284668781929083,"7":-0.11782466941615066,"8":0.16028964556089326,"9":-0.14025919637893774,"10":0.09377081365368395,"11":-0.024821036044970934,"12":-0.1701569136308775,"13":-0.13265044786530933,"14":-0.02196877789853735}},"4":{"bias":0.39410424098235264,"weights":{"0":0.44393124690989877,"1":-1.2853535469793878,"2":-0.2803481521829044,"3":1.5405555543625171,"4":-1.0822842910552226,"5":0.00636957018699702,"6":0.10831169971932475,"7":0.09628040661723514,"8":-0.05898110247634955,"9":-0.024439836887020228,"10":-0.04361468292920162,"11":-0.046294137816903724,"12":0.07473396329045584,"13":-0.1724032538597288,"14":-0.09083205071074643}},"5":{"bias":0.550118612549952,"weights":{"0":0.1660650405151183,"1":-1.5116484458146737,"2":-0.24148937440668652,"3":1.5377152033012145,"4":-1.0720568881911725,"5":-0.1221331569681846,"6":-0.08912497124803737,"7":0.1869086324425947,"8":0.12705301599689117,"9":0.11400434689834515,"10":0.03513283132352568,"11":0.17469758368047233,"12":-0.08711445581360895,"13":-0.07130923220106561,"14":0.16154817755878892}},"6":{"bias":0.903370561980241,"weights":{"0":0.37854641099996245,"1":-1.7702502789238859,"2":-0.34562471776942266,"3":1.8574874680922129,"4":-1.4302440693743068,"5":-0.142899032632862,"6":-0.1536671877397658,"7":0.054086835627636554,"8":-0.13265921698282446,"9":0.011492689171900217,"10":0.037437619107639264,"11":-0.024096124737405772,"12":-0.13129938618449435,"13":0.127891306480596,"14":-0.08400457383983638}}},{"0":{"bias":-0.3158845350804676,"weights":{"0":-3.272424339130777,"1":1.010462368200154,"2":-2.3974764251857397,"3":-0.39750612278755904,"4":2.466773049142653,"5":2.5963017642537998,"6":3.2476055481098816}}}],"outputLookup":false,"inputLookup":false}
